digraph Tree {
node [shape=box, fontname="helvetica"] ;
edge [fontname="helvetica"] ;
0 [label="x[3] <= 2.5\ngini = 0.328\nsamples = 2000\nvalue = [1586, 414]"] ;
1 [label="x[3] <= 1.5\ngini = 0.309\nsamples = 1952\nvalue = [1580, 372]"] ;
0 -> 1 [labeldistance=2.5, labelangle=45, headlabel="True"] ;
2 [label="x[5] <= 0.5\ngini = 0.408\nsamples = 1049\nvalue = [749, 300]"] ;
1 -> 2 ;
3 [label="x[2] <= 46584.129\ngini = 0.47\nsamples = 541\nvalue = [337, 204]"] ;
2 -> 3 ;
4 [label="gini = 0.498\nsamples = 87\nvalue = [41, 46]"] ;
3 -> 4 ;
5 [label="gini = 0.454\nsamples = 454\nvalue = [296, 158]"] ;
3 -> 5 ;
6 [label="x[0] <= 419.0\ngini = 0.307\nsamples = 508\nvalue = [412, 96]"] ;
2 -> 6 ;
7 [label="gini = 0.0\nsamples = 3\nvalue = [0, 3]"] ;
6 -> 7 ;
8 [label="gini = 0.3\nsamples = 505\nvalue = [412, 93]"] ;
6 -> 8 ;
9 [label="x[2] <= 73202.82\ngini = 0.147\nsamples = 903\nvalue = [831, 72]"] ;
1 -> 9 ;
10 [label="x[6] <= 3053.15\ngini = 0.076\nsamples = 532\nvalue = [511, 21]"] ;
9 -> 10 ;
11 [label="gini = 0.375\nsamples = 12\nvalue = [9, 3]"] ;
10 -> 11 ;
12 [label="gini = 0.067\nsamples = 520\nvalue = [502, 18]"] ;
10 -> 12 ;
13 [label="x[5] <= 0.5\ngini = 0.237\nsamples = 371\nvalue = [320, 51]"] ;
9 -> 13 ;
14 [label="gini = 0.334\nsamples = 165\nvalue = [130, 35]"] ;
13 -> 14 ;
15 [label="gini = 0.143\nsamples = 206\nvalue = [190.0, 16.0]"] ;
13 -> 15 ;
16 [label="x[6] <= 197376.281\ngini = 0.219\nsamples = 48\nvalue = [6, 42]"] ;
0 -> 16 [labeldistance=2.5, labelangle=-45, headlabel="False"] ;
17 [label="x[1] <= 1.5\ngini = 0.19\nsamples = 47\nvalue = [5, 42]"] ;
16 -> 17 ;
18 [label="x[0] <= 679.0\ngini = 0.48\nsamples = 5\nvalue = [2, 3]"] ;
17 -> 18 ;
19 [label="gini = 0.0\nsamples = 3\nvalue = [0, 3]"] ;
18 -> 19 ;
20 [label="gini = 0.0\nsamples = 2\nvalue = [2, 0]"] ;
18 -> 20 ;
21 [label="x[6] <= 82895.285\ngini = 0.133\nsamples = 42\nvalue = [3, 39]"] ;
17 -> 21 ;
22 [label="gini = 0.291\nsamples = 17\nvalue = [3, 14]"] ;
21 -> 22 ;
23 [label="gini = 0.0\nsamples = 25\nvalue = [0, 25]"] ;
21 -> 23 ;
24 [label="gini = 0.0\nsamples = 1\nvalue = [1, 0]"] ;
16 -> 24 ;
}